Language model created by QuickLM on Wed Apr 11 11:09:45 EDT 2018
Copyright (c) 1996-2010 Carnegie Mellon University and Alexander I. Rudnicky

The model is in standard ARPA format, designed by Doug Paul while he was at MITRE.

The code that was used to produce this language model is available in Open Source.
Please visit http://www.speech.cs.cmu.edu/tools/ for more information

The (fixed) discount mass is 0.5. The backoffs are computed using the ratio method.
This model based on a corpus of 24 sentences and 26 words

\data\
ngram 1=26
ngram 2=48
ngram 3=24

\1-grams:
-0.7782 </s> -0.3010
-0.7782 <s> -0.2218
-2.1584 一瞬间 -0.2218
-2.1584 凝成 -0.2218
-2.1584 动物园 -0.2218
-2.1584 厉害 -0.2218
-2.1584 可爱 -0.2218
-2.1584 啜泣 -0.2218
-2.1584 喧腾 -0.2218
-2.1584 大宝 -0.2218
-2.1584 头晕 -0.2218
-2.1584 小宝 -0.2218
-2.1584 小心 -0.2218
-2.1584 小憩 -0.2218
-2.1584 帅气 -0.2218
-2.1584 插座 -0.2218
-2.1584 水杯 -0.2218
-2.1584 狮子 -0.2218
-2.1584 电灯 -0.2218
-2.1584 痴想 -0.2218
-2.1584 纳罕 -0.2218
-2.1584 茶叶 -0.2218
-2.1584 足球 -0.2218
-2.1584 隐秘 -0.2218
-2.1584 骚扰 -0.2218
-2.1584 ﻿猴子 -0.2218

\2-grams:
-1.6812 <s> 一瞬间 0.0000
-1.6812 <s> 凝成 0.0000
-1.6812 <s> 动物园 0.0000
-1.6812 <s> 厉害 0.0000
-1.6812 <s> 可爱 0.0000
-1.6812 <s> 啜泣 0.0000
-1.6812 <s> 喧腾 0.0000
-1.6812 <s> 大宝 0.0000
-1.6812 <s> 头晕 0.0000
-1.6812 <s> 小宝 0.0000
-1.6812 <s> 小心 0.0000
-1.6812 <s> 小憩 0.0000
-1.6812 <s> 帅气 0.0000
-1.6812 <s> 插座 0.0000
-1.6812 <s> 水杯 0.0000
-1.6812 <s> 狮子 0.0000
-1.6812 <s> 电灯 0.0000
-1.6812 <s> 痴想 0.0000
-1.6812 <s> 纳罕 0.0000
-1.6812 <s> 茶叶 0.0000
-1.6812 <s> 足球 0.0000
-1.6812 <s> 隐秘 0.0000
-1.6812 <s> 骚扰 0.0000
-1.6812 <s> ﻿猴子 0.0000
-0.3010 一瞬间 </s> -0.3010
-0.3010 凝成 </s> -0.3010
-0.3010 动物园 </s> -0.3010
-0.3010 厉害 </s> -0.3010
-0.3010 可爱 </s> -0.3010
-0.3010 啜泣 </s> -0.3010
-0.3010 喧腾 </s> -0.3010
-0.3010 大宝 </s> -0.3010
-0.3010 头晕 </s> -0.3010
-0.3010 小宝 </s> -0.3010
-0.3010 小心 </s> -0.3010
-0.3010 小憩 </s> -0.3010
-0.3010 帅气 </s> -0.3010
-0.3010 插座 </s> -0.3010
-0.3010 水杯 </s> -0.3010
-0.3010 狮子 </s> -0.3010
-0.3010 电灯 </s> -0.3010
-0.3010 痴想 </s> -0.3010
-0.3010 纳罕 </s> -0.3010
-0.3010 茶叶 </s> -0.3010
-0.3010 足球 </s> -0.3010
-0.3010 隐秘 </s> -0.3010
-0.3010 骚扰 </s> -0.3010
-0.3010 ﻿猴子 </s> -0.3010

\3-grams:
-0.3010 <s> 一瞬间 </s>
-0.3010 <s> 凝成 </s>
-0.3010 <s> 动物园 </s>
-0.3010 <s> 厉害 </s>
-0.3010 <s> 可爱 </s>
-0.3010 <s> 啜泣 </s>
-0.3010 <s> 喧腾 </s>
-0.3010 <s> 大宝 </s>
-0.3010 <s> 头晕 </s>
-0.3010 <s> 小宝 </s>
-0.3010 <s> 小心 </s>
-0.3010 <s> 小憩 </s>
-0.3010 <s> 帅气 </s>
-0.3010 <s> 插座 </s>
-0.3010 <s> 水杯 </s>
-0.3010 <s> 狮子 </s>
-0.3010 <s> 电灯 </s>
-0.3010 <s> 痴想 </s>
-0.3010 <s> 纳罕 </s>
-0.3010 <s> 茶叶 </s>
-0.3010 <s> 足球 </s>
-0.3010 <s> 隐秘 </s>
-0.3010 <s> 骚扰 </s>
-0.3010 <s> ﻿猴子 </s>

\end\
